digraph Tree {
node [shape=box, style="filled", color="black"] ;
0 [label="city_development_index <= 0.625\ngini = 0.374\nsamples = 19158\nvalue = [14381, 4777]\nclass = t", fillcolor="#eeab7b"] ;
1 [label="company_size <= 2.5\ngini = 0.484\nsamples = 3427\nvalue = [1410, 2017]\nclass = a", fillcolor="#c3e2f7"] ;
0 -> 1 [labeldistance=2.5, labelangle=45, headlabel="True"] ;
2 [label="company_type <= 2.5\ngini = 0.476\nsamples = 1694\nvalue = [662, 1032]\nclass = a", fillcolor="#b8dcf6"] ;
1 -> 2 ;
3 [label="training_hours <= 328.0\ngini = 0.485\nsamples = 1252\nvalue = [517, 735]\nclass = a", fillcolor="#c4e2f7"] ;
2 -> 3 ;
4 [label="last_new_job <= 4.5\ngini = 0.485\nsamples = 1250\nvalue = [515, 735]\nclass = a", fillcolor="#c4e2f7"] ;
3 -> 4 ;
5 [label="gini = 0.487\nsamples = 1153\nvalue = [482, 671]\nclass = a", fillcolor="#c7e3f8"] ;
4 -> 5 ;
6 [label="gini = 0.449\nsamples = 97\nvalue = [33, 64]\nclass = a", fillcolor="#9fd0f2"] ;
4 -> 6 ;
7 [label="gini = 0.0\nsamples = 2\nvalue = [2, 0]\nclass = t", fillcolor="#e58139"] ;
3 -> 7 ;
8 [label="training_hours <= 71.5\ngini = 0.441\nsamples = 442\nvalue = [145, 297]\nclass = a", fillcolor="#9acdf2"] ;
2 -> 8 ;
9 [label="num_missing <= 1.5\ngini = 0.399\nsamples = 298\nvalue = [82, 216]\nclass = a", fillcolor="#84c2ef"] ;
8 -> 9 ;
10 [label="gini = 0.368\nsamples = 230\nvalue = [56, 174]\nclass = a", fillcolor="#79bded"] ;
9 -> 10 ;
11 [label="gini = 0.472\nsamples = 68\nvalue = [26, 42]\nclass = a", fillcolor="#b4daf5"] ;
9 -> 11 ;
12 [label="training_hours <= 274.0\ngini = 0.492\nsamples = 144\nvalue = [63, 81]\nclass = a", fillcolor="#d3e9f9"] ;
8 -> 12 ;
13 [label="gini = 0.484\nsamples = 134\nvalue = [55, 79]\nclass = a", fillcolor="#c3e1f7"] ;
12 -> 13 ;
14 [label="gini = 0.32\nsamples = 10\nvalue = [8, 2]\nclass = t", fillcolor="#eca06a"] ;
12 -> 14 ;
15 [label="experience <= 14.5\ngini = 0.491\nsamples = 1733\nvalue = [748, 985]\nclass = a", fillcolor="#cfe7f9"] ;
1 -> 15 ;
16 [label="training_hours <= 2.5\ngini = 0.488\nsamples = 1580\nvalue = [667, 913]\nclass = a", fillcolor="#cae5f8"] ;
15 -> 16 ;
17 [label="gini = 0.0\nsamples = 7\nvalue = [0, 7]\nclass = a", fillcolor="#399de5"] ;
16 -> 17 ;
18 [label="major_discipline <= 0.5\ngini = 0.488\nsamples = 1573\nvalue = [667, 906]\nclass = a", fillcolor="#cbe5f8"] ;
16 -> 18 ;
19 [label="gini = 0.0\nsamples = 3\nvalue = [3, 0]\nclass = t", fillcolor="#e58139"] ;
18 -> 19 ;
20 [label="gini = 0.488\nsamples = 1570\nvalue = [664, 906]\nclass = a", fillcolor="#cae5f8"] ;
18 -> 20 ;
21 [label="education_level <= 3.5\ngini = 0.498\nsamples = 153\nvalue = [81, 72]\nclass = t", fillcolor="#fcf1e9"] ;
15 -> 21 ;
22 [label="city_development_index <= 0.602\ngini = 0.465\nsamples = 87\nvalue = [55, 32]\nclass = t", fillcolor="#f4caac"] ;
21 -> 22 ;
23 [label="gini = 0.444\nsamples = 12\nvalue = [4, 8]\nclass = a", fillcolor="#9ccef2"] ;
22 -> 23 ;
24 [label="gini = 0.435\nsamples = 75\nvalue = [51, 24]\nclass = t", fillcolor="#f1bc96"] ;
22 -> 24 ;
25 [label="city_development_index <= 0.534\ngini = 0.478\nsamples = 66\nvalue = [26, 40]\nclass = a", fillcolor="#baddf6"] ;
21 -> 25 ;
26 [label="gini = 0.0\nsamples = 3\nvalue = [3, 0]\nclass = t", fillcolor="#e58139"] ;
25 -> 26 ;
27 [label="gini = 0.464\nsamples = 63\nvalue = [23, 40]\nclass = a", fillcolor="#abd5f4"] ;
25 -> 27 ;
28 [label="company_size <= 0.5\ngini = 0.289\nsamples = 15731\nvalue = [12971, 2760]\nclass = t", fillcolor="#eb9c63"] ;
0 -> 28 [labeldistance=2.5, labelangle=-45, headlabel="False"] ;
29 [label="education_level <= 2.5\ngini = 0.461\nsamples = 4795\nvalue = [3066, 1729]\nclass = t", fillcolor="#f4c8a9"] ;
28 -> 29 ;
30 [label="last_new_job <= 1.5\ngini = 0.262\nsamples = 1349\nvalue = [1140, 209]\nclass = t", fillcolor="#ea985d"] ;
29 -> 30 ;
31 [label="enrolled_university <= 1.5\ngini = 0.143\nsamples = 786\nvalue = [725, 61]\nclass = t", fillcolor="#e78c4a"] ;
30 -> 31 ;
32 [label="gini = 0.106\nsamples = 550\nvalue = [519, 31]\nclass = t", fillcolor="#e78945"] ;
31 -> 32 ;
33 [label="gini = 0.222\nsamples = 236\nvalue = [206, 30]\nclass = t", fillcolor="#e99356"] ;
31 -> 33 ;
34 [label="city_development_index <= 0.922\ngini = 0.388\nsamples = 563\nvalue = [415, 148]\nclass = t", fillcolor="#eeae80"] ;
30 -> 34 ;
35 [label="gini = 0.415\nsamples = 466\nvalue = [329, 137]\nclass = t", fillcolor="#f0b58b"] ;
34 -> 35 ;
36 [label="gini = 0.201\nsamples = 97\nvalue = [86, 11]\nclass = t", fillcolor="#e89152"] ;
34 -> 36 ;
37 [label="experience <= 9.5\ngini = 0.493\nsamples = 3446\nvalue = [1926, 1520]\nclass = t", fillcolor="#fae4d5"] ;
29 -> 37 ;
38 [label="company_type <= 5.5\ngini = 0.498\nsamples = 1590\nvalue = [749, 841]\nclass = a", fillcolor="#e9f4fc"] ;
37 -> 38 ;
39 [label="gini = 0.496\nsamples = 1494\nvalue = [679, 815]\nclass = a", fillcolor="#deeffb"] ;
38 -> 39 ;
40 [label="gini = 0.395\nsamples = 96\nvalue = [70, 26]\nclass = t", fillcolor="#efb083"] ;
38 -> 40 ;
41 [label="city_development_index <= 0.914\ngini = 0.464\nsamples = 1856\nvalue = [1177, 679]\nclass = t", fillcolor="#f4caab"] ;
37 -> 41 ;
42 [label="gini = 0.384\nsamples = 878\nvalue = [650, 228]\nclass = t", fillcolor="#eead7e"] ;
41 -> 42 ;
43 [label="gini = 0.497\nsamples = 978\nvalue = [527, 451]\nclass = t", fillcolor="#fbede2"] ;
41 -> 43 ;
44 [label="city_development_index <= 0.792\ngini = 0.171\nsamples = 10936\nvalue = [9905, 1031]\nclass = t", fillcolor="#e88e4e"] ;
28 -> 44 ;
45 [label="experience <= 16.5\ngini = 0.247\nsamples = 1425\nvalue = [1219, 206]\nclass = t", fillcolor="#e9965a"] ;
44 -> 45 ;
46 [label="experience <= 1.5\ngini = 0.27\nsamples = 1175\nvalue = [986, 189]\nclass = t", fillcolor="#ea995f"] ;
45 -> 46 ;
47 [label="gini = 0.469\nsamples = 24\nvalue = [15, 9]\nclass = t", fillcolor="#f5cdb0"] ;
46 -> 47 ;
48 [label="gini = 0.264\nsamples = 1151\nvalue = [971, 180]\nclass = t", fillcolor="#ea985e"] ;
46 -> 48 ;
49 [label="city_development_index <= 0.642\ngini = 0.127\nsamples = 250\nvalue = [233, 17]\nclass = t", fillcolor="#e78a47"] ;
45 -> 49 ;
50 [label="gini = 0.5\nsamples = 2\nvalue = [1, 1]\nclass = t", fillcolor="#ffffff"] ;
49 -> 50 ;
51 [label="gini = 0.121\nsamples = 248\nvalue = [232, 16]\nclass = t", fillcolor="#e78a47"] ;
49 -> 51 ;
52 [label="relevent_experience <= 0.5\ngini = 0.158\nsamples = 9511\nvalue = [8686, 825]\nclass = t", fillcolor="#e78d4c"] ;
44 -> 52 ;
53 [label="last_new_job <= 2.5\ngini = 0.145\nsamples = 8068\nvalue = [7432, 636]\nclass = t", fillcolor="#e78c4a"] ;
52 -> 53 ;
54 [label="gini = 0.125\nsamples = 3676\nvalue = [3430, 246]\nclass = t", fillcolor="#e78a47"] ;
53 -> 54 ;
55 [label="gini = 0.162\nsamples = 4392\nvalue = [4002, 390]\nclass = t", fillcolor="#e88d4c"] ;
53 -> 55 ;
56 [label="experience <= 2.5\ngini = 0.228\nsamples = 1443\nvalue = [1254, 189]\nclass = t", fillcolor="#e99457"] ;
52 -> 56 ;
57 [label="gini = 0.393\nsamples = 108\nvalue = [79, 29]\nclass = t", fillcolor="#efaf82"] ;
56 -> 57 ;
58 [label="gini = 0.211\nsamples = 1335\nvalue = [1175, 160]\nclass = t", fillcolor="#e99254"] ;
56 -> 58 ;
}